437.53183642504865,-79.436452420848,1.5465861147484299,67.4682233502539,34.86669581882619,222.0355001668032,36.554944242575935
178.5721720244332,37.15666361220987,6.150427391110603,17.087172598235522,34.56203356430313,67.39680888189854,85.89277434077012
10.563547579152003,-3.1065989847715736,1.517766497461929
37.15666361220986,59.91952138283329,0.6144942093248915
-0.1421109,-0.14257622,-0.38300273,-0.69117594,0.187097,-0.3385878,0.05605354,-0.39424714,-0.21277545,0.044218414,-0.49169862,0.43241575,-0.12450642,0.35962594,0.36558628,0.16610402,0.5917233,-0.38331297,-0.12155122,-0.88361794,-0.6833562,0.40338928,-0.15743843,0.5021125,-0.11286907,-0.6582446,-0.20128633,0.3452468,-0.47611398,-0.36544374,0.5642566,0.19025551,0.13742425,0.5177739,0.31492785,0.31771162,0.29439992,-0.23350753,-0.3781631,0.059045788,-0.059202358,-0.1437595,0.3659106,-0.19216952,-0.54952294,-0.3032053,0.2982569,0.31035605,0.4799453,0.49290356,0.4601936,0.44463933,-0.48451775,-0.014147135,-0.4964467,0.47216716,0.21825705,-0.30112803,-0.29423347,0.13293979,0.23034997,0.5560453,0.048288602,0.16669929,-0.14191483,0.12346604,0.05133467,0.3326959,0.008285679,0.14667295,0.22185539,-0.37727496,0.2466852,0.35254332,0.07389761,-0.014788213,0.07955115,0.5169291,-0.22311187,0.114879034,0.07223321,0.5369993,-0.26267123,0.24619707,-0.47696596,0.45998427,-0.4959402,0.1410206,0.042150542,0.0038622527,0.032690845,-0.21478432,0.5648491,-0.30834046,0.16847529,0.5297863,0.0824475,-0.19260712,-0.3363545,-0.0074904817,-0.41941756,-0.423764,0.6982623,-0.18765949,-0.035768047,-0.024631094,0.23878217,0.19614254,0.63766396,-0.74164265,-0.33931983,0.5986423,-0.33734486,-0.4049382,0.40118343,0.29429334,-0.26320845,0.29335943,0.23756877,0.032988943,0.27609685,-0.025424274,-0.41912606,-0.10390472,-0.41057563,0.23572326,0.15925904,-0.25413308,-0.20467772,-0.25759247,0.5343583,0.14588858,-0.3748088,-0.025116835,-0.1362211,0.083399914,-0.085417666,0.03257224,0.73928934,-0.11864449
0.04091109,-0.061891094,0.19566807,0.062411636,-0.018949723,0.10169314,-0.04430107,0.16559386,0.25917757,-0.12623331,0.05566098,0.19830658,0.05013617,0.10183586,0.07400816,0.19470894,0.11250175,0.08722551,0.05178247,0.03393138
-0.06846462,0.28414926,-0.22316368,0.18848553,0.030200345,0.09898734,0.5031217,0.17681502,-0.58571965,0.14613388,0.25818825,0.060925074,-0.049834948,0.17858319,0.28284535,0.36033645,-0.45216376,-0.05974888,-0.108052164,0.38760793,0.26589277,0.47057515,0.26306468,0.4071193,-0.06792443,-0.22215207,-0.020180544,-0.07395436,0.115647756,-0.32871342,-0.05377982,-0.08709016,0.15345465,-0.2812731,-0.013192151,-0.47001532,0.36843243,-0.33180618,0.28270903,-0.065602355,-0.17032634,0.021084001,-0.7109404,0.24504068,-0.057188246,-0.13528785,0.21061163,-0.13085774,0.1553337,0.065196596,-0.16302143,0.2326515,-0.040021464,-0.3089913,-0.36831945,-0.97990966,-0.3024722,-0.14619571,0.3892655,0.17853127,-0.041639302,-0.0032587214,-0.034997433,-0.03292206,-0.4354075,-0.12052218,-0.5608012,-0.23841894,0.34769848,-0.18373166,-0.53250885,0.3020048,0.15745743,0.11898929,0.07903509,-0.04191977,-0.08575382,0.112397216,0.42407343,-0.22703841,-0.59477913,0.110039264,0.45488387,-0.1006287,-0.2739962,-0.65028864,-0.15709518,-0.26837656,0.37050876,-0.067145966,0.40182418,-0.26496956,0.04515376,-0.07378644,-0.17455977,0.23540376,-0.20325267,0.1747554,-0.22127098,0.5129719,-0.31039035,0.044790596,0.26074004,-0.10470545,0.61158025,-0.036911614,0.2590566,0.15793017,0.08945607,0.039617572,-0.074339174,-0.0077184485,0.306313,0.23823382,0.26468268,0.6568904,-0.5105637,-0.512702,0.16415155,0.15195896,-0.27112493,-0.20612319,-0.3521899,0.33493495,0.12385765,0.46773806,0.031306285,0.35138065,-0.2733868,-0.4289563,0.26563743,-0.28892183,-0.011060213,-0.2801921,-0.20786494,0.30404657,-0.30727348,-0.37587667,0.27355632,0.30495593,0.39424744,0.28313243,-0.18846178,-0.05380269,0.5493295,-0.33861583,0.25894284,0.13408615,0.39920437,0.15288028,0.5794271,0.19775014,0.20034237,-0.17591526,0.028143097,-0.900978,-0.39824748,0.41477138,-0.3761462,-0.3852113,0.21269944,0.010504936,-0.10988786,0.11739983,0.39777285,-0.031205518,-0.111767694,-0.60985637,0.0032910402,0.35162655,0.2752267,0.067384124,0.06959702,0.20934096,-1.157228,-0.37143308,-0.30056244,-0.8602535,-0.1970689,0.30148384,-0.25119743,-0.014703194,-0.39143592,-0.003927782,0.009101076,-0.29755595,-0.12491124,-0.28862253,-0.056052815,0.24592358,0.3182297,-0.34537652,-0.22377925,0.13927586,-0.2673352,0.23367596,-0.14386901,-0.2144853,-0.013412787,-0.119047664,0.42520216,-0.23649654,-0.30053657,0.17644085,-0.15069225,0.014783227,0.105288826,-0.28143805,-0.27388415,0.19245915,-0.14342563,0.27139553,-0.5110677,-0.1349035,-0.39077953,-0.058813423,0.035966195,0.4674923,0.20661068,-0.080946475,0.17600569,0.2448615,0.020926323,-0.39633468,0.05981121,0.30543664,-0.84810126,0.2850395,-0.16623361,-0.078456014,0.026970249,0.38925597,0.04127065,-0.123564154,0.43146625,-0.3318037,-0.16556771,0.27148405,-0.45336792,0.24986516,0.20716119,-0.18619464,0.4127087,0.28865686,0.120980896,-0.10001871,-0.2704907,0.3729169,0.04565994,-0.19016461,-0.41124558,0.29843223,0.28641513,-0.33759886,0.42106152,0.0948669,-0.31456712,-0.4571247,-0.22606,0.17871708,0.34039378,0.4186648,0.22044681,0.05561388,-1.0870469,0.16354474,0.109266624,0.36542183,0.31409082,0.16125229,-0.12207478,-0.06846884,-0.15828493,-0.34370255,0.11815925,0.09349012,0.199478,0.32658178,-0.08789163,-0.31953463,-0.04921982,0.1607516,-0.11220373,0.37591147,-0.11182565,-0.06993658,0.21315108,-0.15364456,-0.022293862,-0.34748194,-0.21071962,-0.07214406,-0.44315353,-0.18464823,-0.18374434,-0.7149791,0.14979616,0.04796861,-0.55950844,0.48219883,-0.36480814,0.28631628,0.37722906,-0.21396334,0.19583647,-0.012347135,0.2689333,-0.15214026,0.0039542397,0.09235737,-0.07809991,0.24394353,0.09054032,-0.23061705,-0.40252745,0.22637689,-0.35590455,0.013988244,-0.09300351,0.42236936,0.19850007,-0.10045712,0.11242427,-0.24222694,-0.628461,0.1207706,-0.3331968,-0.097589344,-0.08127438,0.36420053,0.35865822,0.080714084,0.3725778,-0.053008854,0.10888329,-0.16001168,-0.26191628,-0.15719976,-0.56032187,-0.06953842,0.41530067,-0.071697295,0.20165606,0.06634687,-0.16316308,0.06483108,-0.23492055,0.3016101,-0.59984565,-0.06390076,0.06914113,0.040077023,0.47431445,-0.37559602,0.41197821,-0.5394801,0.1143919,0.27413124,0.0674508,-0.12845816,0.22011964,-0.44480222,-0.062207084,0.37830725,-0.50486696,0.18218642,0.087033495,-0.6835161,0.5300775,0.27558586,0.20917721,0.0071330112,0.28564793,-0.31351244,0.23740847,0.096939124,-0.24858871,0.55974877,-0.09813621,0.08621378,-0.4361617,-0.056650605,-0.04442533,0.6615614,0.22309327,-0.052267812,0.10706694,0.10668562,0.3965624,0.16715181,-0.2336518,0.1504135,0.4720491,0.031001423,-0.02347884,-0.25233564,-0.13534984,-0.0748854,0.362722,-0.26057264
0.026991574,-0.025563663,0.12606636,0.014152191,-0.02871105,0.13640621,0.06582428,0.08734535,0.023172962,-0.025080545,0.116870925,0.092384756,-0.078522824,-0.00819477,0.093768544,0.09226191,0.055827767,0.033259068,0.22568879,0.09706739
0.2848508,-0.15250288,-0.3622594,0.1897242,-0.48526555,-0.121538974,-0.042546995,-0.30239183,-0.36650428,0.09005951,0.5157108,0.55607444,-0.16280459,-0.78670025,0.20258376,-0.262224,0.1553918,-0.124323614,-0.32343373,0.8028087,-0.3012798,-0.35454726,-0.41222245,-0.15016516,0.3487544,0.3382368,0.11484355,-0.14193393,-0.2956457,0.07642884,-0.30622706,-0.6495146,-0.6609428,0.6071744,0.40467474,-0.12195564,-0.4443007,-0.3453987,0.45813033,0.13302302,0.42419645,-0.3809576,0.1358945,-0.5489624,-0.39056063,0.07469569,1.3936542,-0.21446726,-0.52589315,-0.85234267,-0.40505227,0.27565548,-0.6064349,0.29047927,-0.38847363,-0.18522698,0.7667926,-0.20609355,0.53242344,-0.38008448
-0.06327989,0.05134328,0.052970026
